digraph Tree {
node [shape=box] ;
0 [label="failures <= 0.5\ngini = 0.4416\nsamples = 395\nvalue = [130, 265]"] ;
1 [label="schoolsup <= 0.5\ngini = 0.375\nsamples = 312\nvalue = [78, 234]"] ;
0 -> 1 [labeldistance=2.5, labelangle=45, headlabel="True"] ;
2 [label="guardian <= 1.5\ngini = 0.3439\nsamples = 272\nvalue = [60, 212]"] ;
1 -> 2 ;
3 [label="romantic <= 0.5\ngini = 0.3273\nsamples = 262\nvalue = [54, 208]"] ;
2 -> 3 ;
4 [label="goout <= 3.5\ngini = 0.2839\nsamples = 181\nvalue = [31, 150]"] ;
3 -> 4 ;
5 [label="age <= 18.5\ngini = 0.2142\nsamples = 123\nvalue = [15, 108]"] ;
4 -> 5 ;
6 [label="age <= 15.5\ngini = 0.2046\nsamples = 121\nvalue = [14, 107]"] ;
5 -> 6 ;
7 [label="goout <= 1.5\ngini = 0.1049\nsamples = 36\nvalue = [2, 34]"] ;
6 -> 7 ;
8 [label="gini = 0.375\nsamples = 4\nvalue = [1, 3]"] ;
7 -> 8 ;
9 [label="paid <= 0.5\ngini = 0.0605\nsamples = 32\nvalue = [1, 31]"] ;
7 -> 9 ;
10 [label="gini = 0.0\nsamples = 17\nvalue = [0, 17]"] ;
9 -> 10 ;
11 [label="gini = 0.1244\nsamples = 15\nvalue = [1, 14]"] ;
9 -> 11 ;
12 [label="goout <= 1.5\ngini = 0.2425\nsamples = 85\nvalue = [12, 73]"] ;
6 -> 12 ;
13 [label="gini = 0.0\nsamples = 6\nvalue = [0, 6]"] ;
12 -> 13 ;
14 [label="guardian <= 0.5\ngini = 0.2577\nsamples = 79\nvalue = [12, 67]"] ;
12 -> 14 ;
15 [label="paid <= 0.5\ngini = 0.2893\nsamples = 57\nvalue = [10, 47]"] ;
14 -> 15 ;
16 [label="age <= 17.5\ngini = 0.3648\nsamples = 25\nvalue = [6, 19]"] ;
15 -> 16 ;
17 [label="goout <= 2.5\ngini = 0.42\nsamples = 20\nvalue = [6, 14]"] ;
16 -> 17 ;
18 [label="gini = 0.32\nsamples = 10\nvalue = [2, 8]"] ;
17 -> 18 ;
19 [label="gini = 0.48\nsamples = 10\nvalue = [4, 6]"] ;
17 -> 19 ;
20 [label="gini = 0.0\nsamples = 5\nvalue = [0, 5]"] ;
16 -> 20 ;
21 [label="age <= 16.5\ngini = 0.2188\nsamples = 32\nvalue = [4, 28]"] ;
15 -> 21 ;
22 [label="gini = 0.2975\nsamples = 11\nvalue = [2, 9]"] ;
21 -> 22 ;
23 [label="age <= 17.5\ngini = 0.1723\nsamples = 21\nvalue = [2, 19]"] ;
21 -> 23 ;
24 [label="gini = 0.0\nsamples = 10\nvalue = [0, 10]"] ;
23 -> 24 ;
25 [label="gini = 0.2975\nsamples = 11\nvalue = [2, 9]"] ;
23 -> 25 ;
26 [label="goout <= 2.5\ngini = 0.1653\nsamples = 22\nvalue = [2, 20]"] ;
14 -> 26 ;
27 [label="gini = 0.0\nsamples = 9\nvalue = [0, 9]"] ;
26 -> 27 ;
28 [label="gini = 0.2604\nsamples = 13\nvalue = [2, 11]"] ;
26 -> 28 ;
29 [label="gini = 0.5\nsamples = 2\nvalue = [1, 1]"] ;
5 -> 29 ;
30 [label="age <= 16.5\ngini = 0.3995\nsamples = 58\nvalue = [16, 42]"] ;
4 -> 30 ;
31 [label="goout <= 4.5\ngini = 0.3018\nsamples = 27\nvalue = [5, 22]"] ;
30 -> 31 ;
32 [label="gini = 0.1975\nsamples = 18\nvalue = [2, 16]"] ;
31 -> 32 ;
33 [label="gini = 0.4444\nsamples = 9\nvalue = [3, 6]"] ;
31 -> 33 ;
34 [label="paid <= 0.5\ngini = 0.4579\nsamples = 31\nvalue = [11, 20]"] ;
30 -> 34 ;
35 [label="gini = 0.4978\nsamples = 15\nvalue = [7, 8]"] ;
34 -> 35 ;
36 [label="gini = 0.375\nsamples = 16\nvalue = [4, 12]"] ;
34 -> 36 ;
37 [label="goout <= 1.5\ngini = 0.4066\nsamples = 81\nvalue = [23, 58]"] ;
3 -> 37 ;
38 [label="gini = 0.0\nsamples = 2\nvalue = [2, 0]"] ;
37 -> 38 ;
39 [label="guardian <= 0.5\ngini = 0.3903\nsamples = 79\nvalue = [21, 58]"] ;
37 -> 39 ;
40 [label="higher <= 0.5\ngini = 0.437\nsamples = 62\nvalue = [20, 42]"] ;
39 -> 40 ;
41 [label="gini = 0.0\nsamples = 2\nvalue = [2, 0]"] ;
40 -> 41 ;
42 [label="age <= 15.5\ngini = 0.42\nsamples = 60\nvalue = [18, 42]"] ;
40 -> 42 ;
43 [label="gini = 0.4898\nsamples = 7\nvalue = [4, 3]"] ;
42 -> 43 ;
44 [label="age <= 16.5\ngini = 0.3888\nsamples = 53\nvalue = [14, 39]"] ;
42 -> 44 ;
45 [label="gini = 0.2907\nsamples = 17\nvalue = [3, 14]"] ;
44 -> 45 ;
46 [label="paid <= 0.5\ngini = 0.4244\nsamples = 36\nvalue = [11, 25]"] ;
44 -> 46 ;
47 [label="gini = 0.375\nsamples = 16\nvalue = [4, 12]"] ;
46 -> 47 ;
48 [label="age <= 17.5\ngini = 0.455\nsamples = 20\nvalue = [7, 13]"] ;
46 -> 48 ;
49 [label="gini = 0.375\nsamples = 12\nvalue = [3, 9]"] ;
48 -> 49 ;
50 [label="gini = 0.5\nsamples = 8\nvalue = [4, 4]"] ;
48 -> 50 ;
51 [label="gini = 0.1107\nsamples = 17\nvalue = [1, 16]"] ;
39 -> 51 ;
52 [label="gini = 0.48\nsamples = 10\nvalue = [6, 4]"] ;
2 -> 52 ;
53 [label="goout <= 1.5\ngini = 0.495\nsamples = 40\nvalue = [18, 22]"] ;
1 -> 53 ;
54 [label="gini = 0.0\nsamples = 4\nvalue = [0, 4]"] ;
53 -> 54 ;
55 [label="guardian <= 1.5\ngini = 0.5\nsamples = 36\nvalue = [18, 18]"] ;
53 -> 55 ;
56 [label="romantic <= 0.5\ngini = 0.4996\nsamples = 35\nvalue = [18, 17]"] ;
55 -> 56 ;
57 [label="goout <= 4.5\ngini = 0.4938\nsamples = 27\nvalue = [15, 12]"] ;
56 -> 57 ;
58 [label="guardian <= 0.5\ngini = 0.4991\nsamples = 23\nvalue = [12, 11]"] ;
57 -> 58 ;
59 [label="gini = 0.4938\nsamples = 18\nvalue = [8, 10]"] ;
58 -> 59 ;
60 [label="gini = 0.32\nsamples = 5\nvalue = [4, 1]"] ;
58 -> 60 ;
61 [label="gini = 0.375\nsamples = 4\nvalue = [3, 1]"] ;
57 -> 61 ;
62 [label="gini = 0.4688\nsamples = 8\nvalue = [3, 5]"] ;
56 -> 62 ;
63 [label="gini = 0.0\nsamples = 1\nvalue = [0, 1]"] ;
55 -> 63 ;
64 [label="failures <= 1.5\ngini = 0.468\nsamples = 83\nvalue = [52, 31]"] ;
0 -> 64 [labeldistance=2.5, labelangle=-45, headlabel="False"] ;
65 [label="age <= 16.5\ngini = 0.4992\nsamples = 50\nvalue = [26, 24]"] ;
64 -> 65 ;
66 [label="gini = 0.355\nsamples = 13\nvalue = [3, 10]"] ;
65 -> 66 ;
67 [label="guardian <= 1.5\ngini = 0.4704\nsamples = 37\nvalue = [23, 14]"] ;
65 -> 67 ;
68 [label="goout <= 2.5\ngini = 0.355\nsamples = 26\nvalue = [20, 6]"] ;
67 -> 68 ;
69 [label="gini = 0.0\nsamples = 5\nvalue = [5, 0]"] ;
68 -> 69 ;
70 [label="age <= 18.5\ngini = 0.4082\nsamples = 21\nvalue = [15, 6]"] ;
68 -> 70 ;
71 [label="guardian <= 0.5\ngini = 0.375\nsamples = 20\nvalue = [15, 5]"] ;
70 -> 71 ;
72 [label="gini = 0.4592\nsamples = 14\nvalue = [9, 5]"] ;
71 -> 72 ;
73 [label="gini = 0.0\nsamples = 6\nvalue = [6, 0]"] ;
71 -> 73 ;
74 [label="gini = 0.0\nsamples = 1\nvalue = [0, 1]"] ;
70 -> 74 ;
75 [label="gini = 0.3967\nsamples = 11\nvalue = [3, 8]"] ;
67 -> 75 ;
76 [label="goout <= 1.5\ngini = 0.3343\nsamples = 33\nvalue = [26, 7]"] ;
64 -> 76 ;
77 [label="gini = 0.0\nsamples = 2\nvalue = [0, 2]"] ;
76 -> 77 ;
78 [label="higher <= 0.5\ngini = 0.2706\nsamples = 31\nvalue = [26, 5]"] ;
76 -> 78 ;
79 [label="gini = 0.0\nsamples = 6\nvalue = [6, 0]"] ;
78 -> 79 ;
80 [label="age <= 17.5\ngini = 0.32\nsamples = 25\nvalue = [20, 5]"] ;
78 -> 80 ;
81 [label="gini = 0.2188\nsamples = 16\nvalue = [14, 2]"] ;
80 -> 81 ;
82 [label="gini = 0.4444\nsamples = 9\nvalue = [6, 3]"] ;
80 -> 82 ;
}