digraph Tree {
node [shape=box] ;
0 [label="sex <= 0.5\ngini = 0.7792\nsamples = 395\nvalue = [82, 104, 98, 82, 24, 3, 1, 1]"] ;
1 [label="gini = 0.7742\nsamples = 208\nvalue = [38, 54, 58, 43, 14, 1, 0, 0]"] ;
0 -> 1 [labeldistance=2.5, labelangle=45, headlabel="True"] ;
2 [label="gini = 0.7809\nsamples = 187\nvalue = [44, 50, 40, 39, 10, 2, 1, 1]"] ;
0 -> 2 [labeldistance=2.5, labelangle=-45, headlabel="False"] ;
}